/*!
 * The following copyright notice may not be removed under any circumstances.
 * 
 * Copyright:
 * Copyright 1999 bluevinyl@aol.com Blue Vinyl Fonts
 */
Cufon.registerFont({"w":1066,"face":{"font-family":"Little Trouble Girl BV","font-weight":400,"font-stretch":"normal","units-per-em":"2048","panose-1":"2 11 6 4 2 2 2 2 2 4","ascent":"1638","descent":"-410","x-height":"13","bbox":"-73 -1857 1616 505","underline-thickness":"150","underline-position":"-142","unicode-range":"U+0020-U+2122"},"glyphs":{" ":{"w":493},"!":{"d":"148,-383r132,-37r120,-961r-252,-38r0,1036xm221,-146r-30,-11r15,-158r92,42xm178,-101r10,24r-106,89r-47,-78xm180,-142r-17,27r-133,-58r71,-88xm197,-73r29,-13r92,94r-96,50xm243,-111r-12,-30r112,-87r34,99","w":447},"\"":{"d":"208,-1063r75,-432r-200,15r25,417r100,0xm519,-1063r75,-432r-201,16r25,416r101,0","w":646},"#":{"d":"1389,-641r-325,30r16,-208r-3,-224r285,-11r24,-167r-297,42r15,-203r-160,-51r-11,264r-205,24r-215,46r22,-300r-165,-63r9,379r-176,34r-167,19r59,67r278,-15r11,234r-14,233r-167,27r-162,34r56,70r276,-18r13,196r-4,199r85,-48r10,-183r2,-183r234,-9r234,-26r4,238r-2,229r79,-49r23,-212r-3,-212r322,-9xm488,-522r11,-237r13,-237r218,-6r217,-29r-7,227r4,222r-227,44","w":1444},"$":{"d":"656,-1347r98,10r-75,279r-14,10r-237,-196r-282,150r99,261r331,87r155,174r77,188r-199,347r-276,46r-205,-161r26,136r-86,2r3,-279r47,3r173,189r287,-120r9,-257r-93,-196r-315,-101r-198,-304r202,-221r205,-14r261,125xm287,-1402r123,-29r46,1501r-62,0","w":779},"%":{"d":"110,-19r128,-193r115,-193r94,-205r133,-183r203,-400r115,-195r185,-59r-128,199r-118,207r-122,205r-131,198r-352,610xm207,-1433r148,46r73,142r19,160r-27,141r-69,122r-68,56r-112,-9r-90,-46r-75,-139r-17,-158r28,-141r62,-128xm93,-1116r5,123r29,118r91,73r84,-57r41,-228r-4,-127r-37,-121r-93,-59r-101,111xm939,-669r149,46r72,141r19,161r-26,140r-69,123r-68,56r-112,-10r-91,-46r-74,-138r-17,-158r28,-141r62,-129xm825,-352r6,122r28,118r91,74r85,-57r40,-229r-4,-127r-36,-120r-93,-60r-102,111","w":1171},"&":{"d":"894,-420r-151,-151r-352,201r267,-71r0,80r-56,232r-339,-110r-57,-272r91,-305r129,-39r63,-26r-134,-36r-30,-319r339,-110r114,151r0,151r70,-126r-199,-294r-338,8r-183,118r0,339r103,161r-215,312r50,389r184,118r408,-15r130,-367r30,106r-50,270r-276,358r326,-251r101,-226","w":975},"'":{"d":"174,-1063r75,-432r-201,15r26,417r100,0","w":233},"(":{"d":"414,-1287r-324,340r-93,278r0,386r139,463r294,325r-93,-247r-170,-309r-46,-294r46,-355r62,-231","w":401},")":{"d":"24,-1287r325,340r92,278r0,386r-139,463r-293,325r93,-247r169,-309r47,-294r-47,-355r-61,-231","w":460},"*":{"d":"220,-1226r-29,-11r14,-158r92,42xm177,-1181r10,23r-105,90r-47,-78xm180,-1222r-18,26r-133,-57r72,-89xm197,-1153r29,-13r92,94r-96,49xm242,-1192r-11,-29r111,-87r34,99","w":377},"+":{"d":"316,-1213r242,0r-53,448r355,-77r31,201r-371,-47r57,431r-224,17r56,-424r-429,35r0,-194r392,35","w":855},",":{"d":"62,-178r244,-11r-9,197r-190,207r-45,-21r112,-186r-90,-10","w":350},"-":{"d":"116,-737r327,26r354,-57r7,143r-680,11","w":768},"\u2010":{"d":"116,-737r327,26r354,-57r7,143r-680,11","w":768},".":{"d":"60,-185r229,-10r-10,198r-115,0r-83,15","w":361},"\/":{"d":"-36,38r202,-366r105,-314r350,-760r151,0r-54,207r-236,412r-164,429r-177,379","w":721},"0":{"d":"441,-1560r260,107r128,332r33,377r-46,331r-122,286r-119,132r-197,-22r-159,-108r-131,-326r-29,-371r49,-331r108,-301xm240,-816r10,287r50,277r160,173r148,-134r71,-537r-7,-298r-64,-283r-163,-139r-178,260","w":904},"1":{"d":"35,-1335r273,-99r-10,909r16,473r88,-37r7,104r-377,-1r3,-91r100,37r36,-1044r-32,-205r-104,103r0,-149","w":452},"2":{"d":"182,-1371r-89,11r68,291r13,10r171,-234r261,121r-23,358r-323,393r-223,303r12,111r396,-6r300,-52r-23,142r78,2r-3,-291r-42,3r-309,115r-248,-37r112,-211r360,-298r130,-298r0,-335r-181,-116r-259,-20r-172,203","w":875},"3":{"d":"781,-1266r-181,-116r-334,-8r-196,290r69,125r0,-149r113,-150r334,109r-22,358r-74,100r-78,5r-137,37r62,25r129,18r59,59r23,359r-335,109r-113,-150r0,-149r-69,125r196,290r334,-8r181,-116r0,-335r-153,-219r192,-274r0,-335","w":844},"4":{"d":"850,-486r-9,-94r-131,28r-53,-752r100,-67r-174,-8r-232,313r-267,611r226,2r279,-6r-48,409r-100,-37r-3,90r377,2r-8,-105r-88,37r-9,-329r0,-94r140,0xm347,-565r-101,35r137,-405r200,-300r-6,141r3,561","w":866},"5":{"d":"106,-2r-89,-11r68,-291r13,-11r172,235r260,-121r74,-253r-100,-211r-223,-136r-248,-37r31,-348r12,-223r594,101r-24,-142r79,-2r-3,290r-43,-2r-308,-116r-195,-5r0,347r418,204r134,82r62,360r-246,308r-260,20r-171,-203","w":779},"6":{"d":"5,-724r44,-192r66,-211r93,-168r260,-121r184,138r7,-123r69,6r-52,242r-29,-1r-10,-58r-208,-128r-191,204r-87,293r76,-82r190,-83r199,55r137,169r47,211r18,213r-95,234r-253,146r-274,-76r-134,-183r-42,-242xm175,-441r28,270r150,93r192,-36r91,-196r21,-214r-65,-204r-121,-173r-208,17r-110,114","w":796},"7":{"d":"670,-1136r87,-211r-424,36r-300,52r24,-141r-79,-3r3,291r43,-3r308,-115r177,7r-100,385r-229,769r-56,0r0,75r335,12r13,-87r-67,0r29,-236","w":725},"8":{"d":"867,-490r-131,-270r137,-227r-62,-273r-99,-125r-219,-49r-309,63r-124,248r87,248r99,137r-156,136r-42,298r124,211r186,112r317,-1r87,-62r63,-86xm486,-1309r201,36r99,274r-167,223r-149,13r-140,-62r-70,-137r-20,-236xm707,-610r79,182r-74,236r-162,124r-186,-63r-111,-128r-22,-194r131,-257r89,-5r42,-10r41,10r89,5","w":904},"9":{"d":"850,-676r-45,192r-66,211r-93,169r-260,120r-184,-137r-6,123r-70,-6r52,-242r29,0r10,59r208,127r191,-203r87,-293r-76,81r-190,83r-199,-54r-137,-169r-47,-211r-18,-214r95,-234r253,-146r274,77r134,183r42,241xm679,-959r-28,-269r-150,-94r-192,37r-91,196r-21,213r65,204r121,173r208,-17r110,-113","w":907},":":{"d":"57,-901r229,-10r-10,198r-115,0r-83,15xm57,-213r229,-10r-10,204r-115,-7r-83,16","w":357},";":{"d":"57,-178r244,-11r-9,197r-200,214r-45,-21r122,-193r-89,-10xm59,-901r229,-10r-10,198r-115,0r-83,15","w":361},"<":{"d":"347,-602r-228,-194r212,-210r236,-192r226,-214r3,130r-490,475r263,219r264,228r-7,151","w":903},"=":{"d":"104,-727r326,26r355,-56r6,142r-680,12xm104,-460r326,27r355,-57r6,142r-680,12","w":746},">":{"d":"572,-1019r228,195r-212,209r-236,192r-226,214r-3,-130r490,-474r-263,-219r-264,-229r7,-151","w":794},"?":{"d":"105,-1008r0,-151r114,-152r339,111r-23,362r-270,341r72,123r50,-163r236,-125r132,-301r0,-339r-183,-118r-339,-8r-198,294xm364,-177r-30,-11r14,-158r93,42xm320,-132r10,23r-105,90r-47,-78xm323,-173r-17,27r-133,-58r71,-88xm340,-104r29,-13r92,94r-96,50xm385,-142r-11,-30r111,-87r35,99","w":832},"@":{"d":"610,-771r-29,9r-44,-220r93,-35r-5,85r283,-140r172,113r72,94r-21,479r-72,302r194,-75r132,-226r47,-254r-132,-453r-154,-205r-204,-87r-188,13r-293,91r-207,207r-77,471r30,395r75,237r166,110r324,135r245,-57r321,-94r207,-217r-123,245r-537,207r-404,-26r-331,-256r-94,-509r-28,-386r141,-274r311,-282r283,-72r217,-4r300,81r208,466r10,499r-189,321r-195,70r-67,10r-145,4r41,-179r-264,163r-240,-83r-43,-187r105,-241r171,-141r225,-57r142,29r-37,-225r-110,-84r-199,84r-80,54xm1022,-514r9,-125r-160,-38r-198,92r-124,248r31,138r245,-44r165,-164","w":1590},"A":{"d":"945,-79r-36,-247r-72,-255r-50,-232r-172,-708r-210,-1r-49,250r-37,245r-55,240r-27,247r-115,474r-68,3r8,60r175,3r173,11r4,-65r-69,-16r23,-193r33,-196r36,-185r303,-24r51,203r24,198r40,189r-36,16r-8,55r209,6r-3,-82xm444,-731r42,-226r33,-225r42,-226r43,231r72,219r45,229"},"B":{"d":"47,-1487r333,-30r307,56r193,167r33,257r-73,168r-139,119r105,56r154,174r7,240r-154,257r-253,19r-249,-2r-251,-9r-9,-125r113,65r-8,-233r8,-233r3,-232r12,-232r-6,-231r-13,-224r-99,46xm510,-770r219,-165r58,-277r-152,-218r-314,-22r17,229r-2,224r17,215xm346,-96r298,-14r131,-112r30,-172r-150,-252r-312,-44r7,204r2,202","w":978},"C":{"d":"756,-1208r44,11r101,-276r-106,-13r-24,93r-189,-84r-239,23r-169,171r-70,231r-24,207r1,207r37,203r69,193r95,185r216,69r215,-39r136,-139r74,-179r14,-80r-179,275r-157,53r-171,-58r-90,-169r-58,-204r-30,-210r1,-213r69,-197r120,-217r229,-21r101,98","w":954},"D":{"d":"107,-1510r207,-5r198,37r182,90r146,135r90,185r6,203r22,228r-38,225r-77,211r-161,153r-195,38r-198,16r-192,-7r-5,-102r107,34r-7,-224r17,-225r-6,-226r11,-226r-1,-225r-18,-216r-82,1xm375,-67r39,10r202,-64r111,-181r23,-210r19,-257r-19,-257r-65,-249r-139,-114r-156,-48r1,224r-12,230r-2,229r-5,230r10,230","w":1008},"E":{"d":"701,-257r-141,143r-209,9r7,-7r4,-217r-8,-217r-5,-217r177,8r175,11r-8,-89r-343,0r18,-214r-15,-207r17,-206r195,4r156,132r71,269r51,-5r0,-231r3,-235r-764,3r8,70r92,-3r-5,226r2,223r-20,224r17,222r-10,222r2,220r-80,0r-8,78r255,-16r253,4r245,-6r21,-225r-15,-226r-37,0","w":923},"F":{"d":"453,-95r-85,4r-14,-213r18,-217r-5,-213r171,9r166,-13r1,-70r-333,-18r-18,-196r19,-208r-4,-207r206,12r163,123r80,263r58,9r-13,-236r-8,-232r-257,10r-253,-12r-254,-8r6,85r85,-3r-2,221r4,223r7,223r-10,223r10,446r-98,-14r2,78r184,9r181,-7","w":945},"G":{"d":"1025,-11r6,-214r-12,-214r-8,-204r-171,-6r-175,-14r-13,134r277,-58r-68,229r-100,201r-150,83r-164,-87r-103,-161r-40,-208r-29,-208r2,-211r55,-199r112,-225r243,-25r96,110r-19,81r55,16r117,-283r-138,-23r-15,126r-191,-102r-240,17r-162,176r-87,226r-26,208r-6,210r48,204r83,188r93,183r210,91r221,-53r154,-187r54,-232r-8,217r-33,217","w":1107},"H":{"d":"834,-91r-3,-227r8,-222r-2,-222r18,-221r-14,-223r8,-219r95,8r-2,-93r-177,1r-171,-4r7,90r72,-4r-9,215r15,214r-4,216r-184,3r-183,-7r3,-219r17,-212r-15,-211r89,-5r4,-64r-171,-1r-162,2r-10,80r78,-11r-12,225r15,223r-6,446r-13,223r18,223r-83,4r-9,63r189,-1r188,8r-8,-70r-102,-15r-7,-207r8,-414r175,1r163,4r6,205r6,421r-80,3r-15,81r196,-17r181,-8r11,-72","w":1006},"I":{"d":"367,-1438r106,13r-4,-98r-340,-1r-7,98r67,-6r-2,221r7,223r-11,669r6,219r-83,-5r-2,87r194,3r187,-8r6,-94r-126,16r4,-225r7,-222r-5,-222r15,-222r-7,-222","w":534},"J":{"d":"239,-1519r293,24r105,-24r9,95r-119,0r-9,141r-17,197r-1,694r-91,272r-166,60r-89,25r-85,-47r95,0r75,-28r85,-80r31,-315r25,-215r-21,-217r9,-274r-13,-232r-101,30xm50,-110r-37,-104r85,-95r94,19r29,104r-85,-85r-57,47","w":603},"K":{"d":"874,-84r-57,-218r-29,-220r-49,-216r-70,-210r-53,-218r201,-269r100,4r6,-98r-292,19r1,79r101,4r-142,176r-276,367r23,-281r-14,-268r98,9r-6,-93r-335,8r-11,85r74,-9r-1,224r15,222r-27,224r27,223r-10,223r3,223r-99,-13r-1,97r377,-26r-3,-59r-106,-8r7,-223r-13,-222r19,-217r186,-264r-13,46r42,226r55,222r51,225r67,223r-126,-8r-1,109r197,-2r189,-13r7,-92","w":1032},"L":{"d":"113,-1517r174,18r169,-10r-4,73r-87,3r-17,226r20,227r-5,228r-1,225r-13,225r-2,222r180,-23r132,-127r80,-192r25,-207r64,3r-22,209r-14,208r0,213r-243,-17r-236,9r-238,15r11,-79r86,-1r-4,-229r15,-227r6,-227r-18,-229r22,-228r-8,-224r-57,-6","w":867},"M":{"d":"1107,-1383r109,-104r-89,-15r-221,35r-59,191r-64,199r-34,208r-69,197r-51,186r-39,-196r-61,-204r-69,-203r-46,-208r-53,-198r-225,6r-102,-13r104,77r-7,223r14,225r7,224r-14,223r20,222r1,224r-120,-9r16,75r175,26r180,9r15,-102r-84,-5r-14,-226r-1,-229r2,-227r-1,-227r8,-232r70,225r43,226r66,221r53,205r54,115r54,-106r81,-217r56,-223r76,-216r49,-238r0,244r-17,228r12,229r-17,229r23,230r-109,-15r18,75r174,26r177,4r-6,-79r-52,-11r-5,-214r2,-218r-14,-217r10,-218r-7,-218","w":1241},"N":{"d":"1014,-1438r-2,-86r-153,20r-12,-6r-1,-13r-75,22r-18,93r96,-14r2,234r25,469r-4,232r8,241r-102,-215r-62,-218r-105,-202r-71,-215r-97,-202r-85,-209r-196,-12r-93,17r80,158r6,246r21,498r-26,248r21,249r-115,-6r10,90r191,-6r195,8r-14,-107r-67,6r-19,-210r21,-215r3,-213r-20,-214r12,-218r363,766r71,197r85,187r78,26r6,-236r-17,-238r-1,-237r4,-237r0,-235r-14,-236","w":1044},"O":{"d":"441,-1560r260,107r128,332r33,377r-46,331r-122,286r-119,132r-197,-22r-159,-108r-131,-326r-29,-371r49,-331r108,-301xm240,-816r10,287r50,277r160,173r148,-134r71,-537r-7,-298r-64,-283r-163,-139r-178,260","w":904},"P":{"d":"122,-118r108,15r-6,-355r-30,-771r8,-244r-114,12r6,-89r232,-15r216,15r247,62r120,135r34,364r-12,199r-113,160r-256,87r-166,-53r-13,125r1,399r113,-17r9,105r-387,-24xm382,-1119r24,197r-2,273r182,48r169,-197r15,-225r12,-287r-246,-145r-113,25","w":1011},"Q":{"d":"677,-49r92,186r-61,46r-93,15r-53,-213r7,0r113,-121r114,-264r44,-405r-31,-347r-121,-306r-245,-99r-212,98r-102,277r-46,305r27,442r123,300r150,100r137,15r-13,64r46,247r201,0r108,-216xm310,-252r-48,-255r-8,-365r25,-362r121,-227r201,116r60,260r7,274r-68,596r-93,51r0,-162r31,-124r-108,62r54,237r-100,56","w":888},"R":{"d":"1020,-46r-239,-570r45,-25r95,-172r10,-145r-33,-364r-120,-135r-247,-62r-216,-15r-232,15r-6,89r114,-12r-8,244r30,770r-2,325r-108,0r15,124r392,-5r-9,-105r-112,17r-21,-448r183,8r128,-43r204,505r-65,-4r-11,86r284,-11r0,-62xm387,-597r-12,-292r-5,-200r41,-310r113,-25r247,145r-12,287r-15,225r-179,164","w":1149},"S":{"d":"758,-1562r114,16r-87,420r-17,16r-219,-339r-156,84r-165,120r201,370r322,197r135,259r-102,329r-285,109r-320,-183r30,205r-100,3r4,-420r54,4r261,263r171,-56r62,-175r-21,-250r-164,-171r-202,-83r-169,-231r-12,-265r170,-194r239,-21r248,232","w":907},"T":{"d":"979,-1523r-279,0r1,3r-633,-4r-30,617r45,0r95,-401r166,-137r-1,-12r83,6r-5,452r15,453r8,449r-62,1r-9,83r340,-22r3,-62r-87,0r-32,-900r-4,-449r263,147r98,400r68,0","w":1073},"U":{"d":"836,-83r-362,104r-263,-153r-83,-272r-24,-447r2,-560r-116,27r0,-116r212,46r237,-42r-8,112r-107,-6r-48,534r65,417r157,318r209,-24r114,-155r1,-397r-36,-571r-143,19r0,-135r236,51r253,-51r-13,113r-107,-10r-55,395r-36,648","w":1077},"V":{"d":"376,-850r-35,-185r-33,-195r-23,-192r69,-16r-4,-65r-172,11r-175,3r-8,60r67,3r115,473r27,246r55,239r37,245r49,249r209,-1r222,-958r71,-234r36,-246r72,4r3,-82r-208,6r7,55r36,16r-39,188r-24,197r-51,203r-19,61r-45,228r-72,219r-43,230r-42,-226r-32,-223r-42,-226","w":894},"W":{"d":"797,-958r17,83r7,86r42,227r32,223r43,226r42,-231r72,-218r45,-229v28,-83,59,-173,70,-263r24,-197r40,-188r-37,-17r-7,-54r208,-6r-3,82r-71,-4r-37,245r-70,235r-48,223r-175,735r-209,1r-49,-250r-37,-244r-30,-130r-148,623r-210,1r-49,-250r-37,-244r-54,-239r-28,-247r-114,-473r-68,-2r9,-60r174,-3r172,-11r5,65r-70,16r23,192r33,195r36,185r8,86r41,227r33,223r42,226r42,-231r73,-218r44,-229r9,-26r-18,-162r-114,-473r-68,-2r8,-60r175,-3r172,-11r4,65r-69,16r23,192r17,103r98,-265r-34,-40r14,-60r173,13r-33,80r-60,0","w":1406},"X":{"d":"657,-757r92,-293r103,-240r99,-165r59,-11r7,-51r-183,-13r-13,57r40,1r-79,150r-217,503r-105,-287r-108,-221r-52,-119r60,5r-6,-89r-322,19r0,63r79,5r85,160r182,406r79,197r-89,239r-131,232r-90,175r-65,8r0,50r202,13r0,-57r-40,-10r74,-118r118,-212r113,-235r91,237r108,229r65,114r-55,8r-19,63r334,0r-6,-63r-62,-7r-81,-173r-108,-200r-83,-209","w":1125},"Y":{"d":"615,-696r158,-403r85,-179r76,-179r56,-7r6,-50r-207,-15r-13,57r40,1r-68,145r-69,214r-138,262r-102,-253r-108,-221r-52,-119r60,5r-6,-89r-322,19r0,63r80,5r84,159r265,584r21,248r-15,225r0,209r-56,6r-11,68r310,-3r0,-57r-78,-8r0,-139r4,-240r16,-169","w":1065},"Z":{"d":"828,-234r6,124r-200,15r-324,30r123,-281r115,-283r120,-274r109,-289r118,-258r-192,0r-184,32r-372,35r-11,-119r-95,42r10,79r1,-1r13,27r36,187r85,-33r1,-80r262,-31r215,-15r-92,231r-123,323r-123,293r-124,231r-123,293r167,-9r197,-8r196,-29r192,-12r-4,110r84,-2r38,-346","w":1005},"[":{"d":"361,-1271r-355,15r77,1761r293,0r0,-108r-185,61r-93,-1667r232,46","w":351},"\\":{"d":"816,38r-202,-366r-105,-314r-350,-760r-152,0r54,207r237,412r164,429r177,379","w":845},"]":{"d":"41,-1271r355,15r-77,1761r-294,0r0,-108r185,61r93,-1667r-232,46","w":455},"^":{"d":"0,-815r398,-595r142,177r132,202r142,187r-133,22r-113,-231r-163,-210r-153,229r-113,219r-139,0","w":822},"_":{"d":"-52,24r1134,0r0,44r-1134,0r0,-44","w":1108},"`":{"d":"173,-1316r-152,-133r114,-66r38,76r57,95","w":214},"a":{"d":"182,-733r-28,9r-75,-221r88,-35r7,85r265,-141r190,114r85,94r46,482r-29,304r85,-32r-20,103r-66,10r-145,4r16,-179r-243,163r-253,-83r-69,-188r72,-243r151,-142r218,-56r147,28r-68,-226r-123,-85r-189,85r-72,54xm632,-474r-8,-126r-166,-38r-187,92r-89,249r51,139r240,-44r142,-165","w":859},"b":{"d":"51,-1428r271,-9r-22,223r3,277r167,-53r255,87r112,159r12,199r7,182r-55,171r-117,147r-186,44r-441,2r5,-116r107,44r-20,-235r20,-523r-27,-363r16,-182r-99,14xm334,-52r109,-19r246,-144r-12,-286r8,-255r-192,-166r-181,47r1,272r-24,198","w":897},"c":{"d":"658,-960r-181,-59r-182,23r-138,132r-78,178r-13,252r54,209r187,201r195,32r196,-108r88,-249r-34,-10r-100,213r-156,52r-228,-186r-44,-201r30,-211r66,-162r137,-100r133,39r79,52r11,91r39,0r13,-257r-72,6","w":801},"d":{"d":"835,-1355r-99,-14r17,182r-28,363r21,522r-21,235r108,-44r5,116r-441,-2r-187,-43r-117,-148r-54,-171r6,-182r13,-198r112,-160r255,-87r166,53r3,-276r-21,-224r270,9xm605,-401r-24,-197r2,-272r-182,-48r-192,166r8,255r-1,260r205,155r140,34","w":891},"e":{"d":"306,-217r250,149r173,-107r85,-230r25,6r-46,204r-221,198r-315,-76r-123,-176r-60,-206r-21,-211r99,-241r210,-147r178,39r172,89r91,290r-285,30r-282,42r21,171xm232,-623r190,-49r212,6r-67,-198r-233,-52r-82,137","w":810},"f":{"d":"688,-1164r43,-1r21,-264r-77,-2r1,126r-239,-109r-169,90r-130,138r-8,224r25,284r9,227r-20,395r-75,-25r-10,88r370,6r-4,-105r-123,36r4,-385r-5,-273r222,1r-13,-126r-223,56r4,-221r26,-210r189,-145r175,133","w":769},"g":{"d":"815,-255r-61,192r-73,184r-108,163r-273,102r-176,-154r-16,124r-70,-11r72,-242r30,3r4,60r202,146r210,-191r100,-266r-83,77r-199,69r-198,-71r-125,-182r-32,-218r-1,-218r115,-230r268,-128r235,159r7,-171r260,1r7,80r-112,-25r-4,251r24,248xm664,-555r-8,-263r-145,-107r-196,10r-108,191r-39,215r50,212r109,185r213,-1r120,-107","w":930},"h":{"d":"8,-1394r5,-66r186,20r214,-19r-14,76r-105,-5r-10,250r20,255r256,-103r134,72r94,178r-3,202r-6,202r-17,200r13,188r80,-22r0,75r-151,-19r-175,17r9,-80r73,18r27,-190r-5,-193r17,-232r-56,-257r-195,-64r-115,121r-25,467r3,237r116,-19r2,76r-344,-1r4,-71r70,21r23,-1112r-32,-222r-93,0","w":844},"i":{"d":"65,-1034r280,-16r-33,367r10,614r93,-38r2,101r-349,4r3,-92r90,38r20,-475r-29,-445r-88,34xm231,-1311r-30,-11r14,-158r93,42xm187,-1266r10,23r-105,90r-47,-78xm190,-1307r-17,27r-133,-58r71,-88xm207,-1238r29,-13r92,94r-96,50xm252,-1276r-11,-30r111,-87r34,99","w":468},"j":{"d":"69,-1035r298,-2r-14,214r-18,197r0,640r-91,274r-215,77r-15,-31r144,-117r57,-475r-22,-218r9,-276r-13,-232r-101,30xm231,-1311r-29,-11r14,-158r92,42xm188,-1266r10,23r-106,90r-47,-78xm191,-1307r-18,27r-133,-58r72,-88xm208,-1238r29,-13r91,94r-95,50xm253,-1276r-12,-30r112,-87r34,99","w":437},"k":{"d":"45,-978v9,-17,10,-43,15,-64r254,-3r-23,117r13,253r168,-164r146,-168r114,-95r-79,-10r12,-44r137,19r131,-19r-8,46r-96,15r-104,80r-160,163r-139,169r139,173r156,234r183,201r104,14r0,51r-399,5r-8,-61r101,0r-154,-149r-145,-232r-112,-114r-1,241r9,235r96,-8r-9,85r-327,2r21,-99r46,19r18,-234r0,-238r-9,-237r-18,-171","w":1054},"l":{"d":"71,-1438r290,-11r-30,899r16,482r90,-38r7,107r-384,-1r3,-93r102,38r37,-1065r-33,-260r-98,34r0,-92","w":487},"m":{"d":"1335,-74r-13,-254r-1,-405r-92,-259r-263,-57r-198,155r-65,-105r-202,-38r-162,116r-16,-131r-262,25r-12,80r137,-11r18,168r0,348r-15,349r-82,-8r-10,84r376,0r0,-100r-110,14r-12,-237r9,-519r193,-95r132,177r27,370r-25,406r-82,-4r-6,83r169,-44r177,47r0,-86r-90,20r-11,-425r-35,-418r227,-114r126,178r27,440r-21,235r-83,-4r-6,82r346,3r0,-85","w":1473},"n":{"d":"49,-1011r272,-26r17,132r220,-132r210,113r66,201r19,329r-2,412r93,-19r0,85r-166,-43r-192,40r7,-82r85,4r38,-394r-52,-306r-125,-235r-199,95r-13,329r28,421r114,-14r0,100r-389,0r10,-84r85,8r44,-292r-40,-399r0,-174r-142,11","w":985},"o":{"d":"440,-1033r240,92r105,235r14,259r-58,222r-127,186r-125,52r-177,0r-145,-85r-108,-231r-11,-255r61,-221r115,-198xm218,-541r-4,196r35,192r143,130r188,-183r48,-258r7,-204r-48,-196r-143,-125r-183,182","w":775},"p":{"d":"37,278r136,68r0,-256r-30,-770r8,-244r-114,11r6,-89r185,-15r47,77r170,-62r247,62r92,124r61,375r-12,199r-112,160r-256,88r-167,-54r-12,126r30,363r-263,-24xm284,-571r24,197r-1,273r182,48r192,-167r-8,-255r12,-287r-247,-145r-113,25","w":924},"q":{"d":"853,289r-263,86r14,-186r-3,-277r-166,54r-255,-88r-112,-159r-12,-198r-6,-182r54,-170r117,-148r319,-52r110,78r161,-104r50,108r-135,46r30,185r-34,535r2,280r-12,176r143,-125xm574,-928r-112,-25r-245,144r11,286r-8,255r192,166r181,-48r-2,-272r24,-196","w":886},"r":{"d":"656,-1030r-1,95r-120,-114r-170,57r-82,164r28,-213r-280,16r0,91r87,-34r29,444r-20,473r-89,-38r-3,92r347,-4r-2,-100r-93,37r-8,-501r162,-351r132,-51r91,96r11,91r40,0r13,-257","w":779},"s":{"d":"619,-1079r91,11r-69,296r-14,10r-174,-238r-214,161r117,262r196,98r108,182r-81,232r-227,76r-255,-129r24,144r-80,2r4,-295r43,3r207,185r186,-162r-17,-176r-131,-121r-216,-143r-27,-242r135,-137r191,-15r197,164","w":740},"t":{"d":"638,-278r38,152r-151,142r-237,-38r-145,-184r3,-218r24,-217r-12,-216r-5,-214r3,-238r-142,-47r321,-29r-28,360r341,-19r0,123r-342,-33r-7,355r5,215r13,229r160,104r152,-75xm610,-325r-104,-85r-114,47r29,180r132,-38r-95,-28r-18,-104","w":716},"u":{"d":"964,-25r-308,27r-17,-131r-219,131r-209,-113r-66,-200r-19,-327r2,-411r-93,19r0,-85r169,35r188,-32r-7,82r-84,-4r-39,392r52,306r125,233r198,-94r13,-328r-28,-420r-113,15r-1,-100r188,38r200,-38r-10,83r-84,-7r-44,290r40,397r0,174r166,5r0,63","w":1012},"v":{"d":"12,-995r7,-67r158,34r179,-44r-1,58r-75,27r109,221r67,221r73,219r87,212r45,-199r65,-201r39,-208r56,-200r63,-200r-54,-17r35,-47r75,38r103,-28r0,58r-71,-4r-43,235r-67,224r-73,219r-64,223r-69,220r-195,-1r-80,-193r-65,-200r-84,-194r-64,-201r-95,-205r-61,0","w":1002},"w":{"d":"895,-705r44,148r74,220r97,233r66,-221r47,-208r74,-227r40,-194r31,-179r-54,-17r7,-32r97,24r117,-21r-8,49r-63,-5r-51,237r-130,439r-67,214r-67,254r-194,-1r-91,-215r-64,-200r-17,-39r-67,229r-69,220r-194,-1r-81,-193r-64,-200r-85,-194r-146,-464r-61,0r7,-68r153,34r184,-43r0,58r-76,26r96,280r67,221r74,219r87,212r44,-199r65,-201r12,-60v-30,-73,-51,-155,-77,-231r-80,-235r-61,0r7,-67r159,30r178,-40r0,58r-75,27r30,122r3,-13r47,118r86,-224r-74,-21r34,-60r80,27r114,-7r-20,81r-74,-7","w":1529},"x":{"d":"901,61r-121,-209r-95,-185r-95,-225r146,-219r132,-245r22,16r19,-53r-88,15r-103,-21r-2,53r35,-5r-108,213r-130,200r-95,-204r-115,-173r50,3r9,-53r-172,12r-158,-12r-5,48r50,2r138,220r138,240r-120,240r-127,230r-67,4r-14,60r166,-13r164,3r22,-69r-55,9r97,-198r85,-214r97,192r110,174r43,186r-59,7r6,51r169,-43r103,6r1,-53","w":939},"y":{"d":"321,348r16,-31r338,46r123,-215r-15,-243r-77,95r-354,30r-185,-230r-30,-478r16,-164r-20,-94r-78,28r-6,-75r185,27r171,-19r-3,80r-75,-11r-19,98r6,130r69,580r307,17r105,-129r13,-526r-30,-258r-114,28r-6,-101r169,46r154,-62r20,87r-72,-15r23,441r-20,385r3,353r-60,133r-169,139xm352,471r-108,-47r77,-215r46,0","w":1016},"z":{"d":"730,-256r9,115r-115,30r-123,20r-173,18r118,-223r75,-177r89,-177r112,-207r125,-193r-207,15r-98,3r-190,35r-203,13r-13,-83r-104,29r11,55r1,-1r14,19r40,172r94,-23r-15,-77r365,-57r-68,198r-96,177r-84,199r-131,188r-122,189r617,-17r76,-13r-4,76r91,-2r43,-313","w":916},"|":{"d":"53,-1390r202,0r-38,695r25,682r-13,430r-164,-25r25,-720r0,-645","w":321},"~":{"d":"103,-754r29,-189r142,-76r155,60r214,139r180,-95r-19,-133r86,118r-100,194r-183,19r-216,-116r-60,-27r-124,-27","w":920},"\u00a0":{"w":493},"\u00a1":{"d":"368,-593r-130,42r-86,965r252,28xm288,-828r29,11r-8,158r-94,-39xm329,-874r-11,-23r103,-93r49,76xm328,-833r16,-27r136,53r-69,91xm309,-901r-29,13r-95,-90r94,-53xm265,-861r12,29r-108,90r-38,-97","w":506},"\u00a2":{"d":"718,-324r-101,213r-156,52r-72,-59r68,-529r55,-247r43,12r79,52r11,92r40,0r13,-258r-73,7r-1,63r-98,-32r36,-164r-105,-19r-35,158r-162,20r-139,133r-78,178r-13,252r55,210r189,202r-26,158r95,47r26,-189r98,16r196,-109r89,-249xm233,-245r-44,-201r29,-212r66,-163r127,-91r-106,726","w":736},"\u00a3":{"d":"846,-283r9,129r-123,90r-313,-239r-80,-3r-46,-348r173,-17r19,-109r-206,23r-15,-109r-59,-162r70,-227r123,-89r189,89r72,57r-10,100r29,10r75,-232r-89,-37r-7,89r-265,-148r-190,120r-125,228r67,327r-10,1r-114,-40r0,129r145,10r18,88r22,243r-71,-3r-67,189r100,183r66,11r145,4r-16,-188r-8,-69r74,29v70,47,111,96,124,149v38,52,107,75,208,70r114,-90r48,-79xm232,-15r-85,-33r-13,-165r66,-30r12,4","w":969},"\u00a4":{"d":"739,-596r-19,-203r-20,-57r168,-79r-142,-156r-79,135r-69,-60r-151,-19r-195,52r-3,4r-60,-136r-140,165r124,61r-29,35r-23,213r58,172r-108,43r151,179r44,-143r50,45r231,-7r80,-57r49,152r158,-126r-134,-89xm492,-445r-165,5r-98,-87r-41,-125r16,-152r78,-92r139,-37r108,14r67,59r34,96r13,145r-48,100","w":912},"\u00a5":{"d":"841,-1540r-13,57r41,1r-80,149r-75,225r-146,279r-102,-287r-108,-221r-52,-120r60,5r-6,-88r-323,19r0,63r80,4r85,160r265,585r10,116r-221,-29r-23,114r186,9r66,-2v6,55,-3,111,-5,167r-215,-3r0,113r163,-28r46,3r-1,224r-57,6r-11,68r311,-3r0,-57r-78,-8r0,-139r2,-83r227,13r5,-138r-230,23v0,-59,6,-111,11,-165r252,-10r12,-123r-263,40r-11,-106r158,-404r157,-354r60,-12r6,-51","w":956},"\u00a6":{"d":"81,-884r-9,-316r-13,-202r202,12r-25,228r20,379r-8,113r-176,13xm101,-75r-17,-355r164,13r-7,164r20,670r-63,-38r-101,25","w":328},"\u00a7":{"d":"527,-1299r219,339r17,-15r87,-421r-114,-16r-8,239r-248,-232r-239,21r-170,194r12,236r53,93r-124,338r221,282r171,85r170,76r53,183r-165,119r-156,85r-219,-339r-17,15r-87,421r114,15r8,-238r248,232r239,-21r170,-194r-10,-294r-34,-45r34,-411r-123,-209r-190,-104r-180,-48r-53,-182r165,-119xm477,-713r218,199r-25,310r-41,-54r-235,-40r-278,-244r54,-260r13,22","w":828},"\u00a8":{"d":"256,-1366r-26,-5r-5,-122r80,22xm225,-1327r11,17r-77,80r-47,-54xm223,-1358r-12,22r-115,-28r49,-76xm244,-1308r23,-13r85,61r-73,49xm277,-1342r-12,-21r82,-79r39,71xm606,-1364r-25,-5r-5,-122r80,22xm576,-1325r10,17r-77,80r-47,-54xm574,-1356r-12,22r-115,-28r49,-76xm595,-1306r22,-13r86,61r-74,49xm628,-1340r-13,-21r83,-79r38,71","w":796},"\u00a9":{"d":"640,-1385r447,99r222,298r63,337r-75,294r-204,254r-202,116r-338,-23r-273,-98r-228,-292r-55,-331r79,-295r182,-267xm153,-727r30,257r128,248r390,158r353,-115r159,-478r-24,-266r-161,-253r-398,-129r-423,228xm824,-935r27,7r60,-166r-63,-8r-15,56r-113,-50r-143,14r-101,102r-42,138r-15,125r0,124r23,122r41,116r57,110r130,42r129,-23r81,-84r45,-107r8,-48r-107,164r-95,33r-102,-35r-54,-102r-35,-122r-18,-126r1,-128r41,-118r72,-130r138,-13r60,59","w":1369},"\u00aa":{"d":"227,-1310r-20,7r-54,-157r63,-25r5,60r189,-100r134,81r61,67r33,342r-21,217r61,-23r-15,73v-44,9,-98,8,-150,10r12,-127r-173,116r-180,-59r-49,-134r51,-172r108,-102r155,-40r104,20r-49,-160r-87,-61r-134,61r-52,38xm547,-1126r-6,-89r-118,-27r-133,66r-63,176r36,99r171,-31r101,-118","w":721},"\u00ab":{"d":"694,-697r-141,134r133,243r105,199r206,263r12,-225r-253,-432r171,-236r133,-149r3,-235r-252,233xm234,-697r-141,135r133,243r104,199r207,263r12,-225r-253,-432r171,-236r133,-149r3,-235r-252,233","w":1092},"\u00ac":{"d":"24,-681r124,19r265,-19r228,-10r143,29r-33,152r26,104r-3,114r-152,28r29,-180r-38,-142r-171,19r-418,19r0,-133","w":832},"\u00ad":{"d":"116,-737r327,26r354,-57r7,143r-680,11","w":768},"\u00ae":{"d":"739,-1382r446,99r223,298r62,336r-74,294r-204,254r-203,116r-337,-22r-273,-99r-228,-292r-56,-331r79,-294r182,-268xm252,-724r30,256r127,248r390,159r354,-116r158,-477r-24,-266r-161,-254r-398,-128r-422,227xm1041,-302r-66,-162r-43,-133r68,-96r7,-119r-20,-219r-72,-80r-148,-37r-130,-10r-139,10r-4,53r69,-7r-5,146r18,462r-1,195r-65,0r9,74r235,-2r-5,-64r-68,11r-10,-221r7,-56r101,13r76,-26r101,198r10,94r-39,-2r18,55r159,-8r-18,-74xm684,-608r1,-164r-15,-118r25,-187r68,-15r148,87r-7,172r-10,136r-114,85","w":1467},"\u00af":{"d":"116,-737r327,26r354,-57r7,143r-680,11","w":768},"\u00b0":{"d":"10,-1366r126,-164r189,25r101,190r-113,151r-202,25xm140,-1214r147,-18r83,-110r-74,-138r-138,-19r-92,120","w":398},"\u00b1":{"d":"110,-116r327,26r354,-56r7,142r-680,11xm365,-1221r242,0r-53,447r356,-77r30,201r-370,-46r56,430r-224,18r56,-425r-429,35r0,-194r392,35","w":906},"\u00b2":{"d":"208,-1469r-50,5r38,132r7,4r97,-106r146,55r-13,162r-181,178r-126,136r7,51r223,-3r168,-23r-13,64r44,1r-2,-132r-23,2r-174,52r-139,-17r63,-96r202,-134r73,-135r0,-152r-102,-52r-145,-9r-97,92","w":598},"\u00b3":{"d":"583,-1458r-112,-54r-208,-3r-122,135r42,58r0,-70r71,-69r208,50r-14,167r-46,46r-49,2r-85,18r39,11r80,8r37,28r14,167r-208,50r-71,-70r0,-69r-43,58r122,135r209,-4r112,-54r0,-155r-95,-102r119,-127r0,-156","w":628},"\u00b4":{"d":"100,-1270r152,-132r-114,-67r-38,76r-57,95","w":235},"\u00b5":{"d":"791,-124r0,-174r-41,-399r44,-291r85,8r10,-84r-201,38r-188,-38r0,100r114,-14r28,421r-13,329r-199,95r-125,-235r-52,-307r38,-393r85,4r7,-82r-189,31r-169,-34r0,85r93,-19r-2,412r19,329r11,379r19,238r-76,-10r10,95r266,-19r19,-95r-86,10r-9,-370r122,85r220,-131r17,131r272,-25r12,-80","w":972},"\u00b6":{"d":"706,-1379r-370,-30r-216,139r-31,355r77,181r124,174r183,24r0,206r-14,713r154,9r12,-416r-25,-661r32,-565r182,-4r30,314r0,625r-25,697r164,25r13,-416r-26,-661r34,-588r119,-2r31,-149","w":1088},"\u00b7":{"d":"70,-849r229,-10r-10,197r-115,0r-83,16","w":303},"\u00b8":{"d":"48,208r30,103r179,11r16,-123r-64,-68r-85,-26r-13,-143r102,13r-7,89r116,42r39,150r-85,142r-168,16r-98,-89","w":337},"\u00b9":{"d":"151,-1482r192,-49r-7,452r11,236r62,-19r11,46r-271,6r2,-45r71,18r25,-520r-23,-102r-73,51r0,-74","w":433},"\u00ba":{"d":"399,-1542r174,66r76,167r10,184r-42,158r-92,132r-90,37r-129,0r-104,-60r-79,-164r-8,-181r44,-158r84,-140xm238,-1192r-2,140r25,136r103,92r137,-129r34,-184r5,-145r-34,-140r-104,-88r-133,129","w":665},"\u00bb":{"d":"458,-697r140,134r-132,243r-105,199r-207,263r-11,-225r253,-432r-172,-236r-133,-149r-3,-235r252,233xm918,-697r141,135r-133,243r-105,199r-206,263r-12,-225r253,-432r-171,-236r-134,-149r-3,-235r253,233","w":1027},"\u00bc":{"d":"76,-19r128,-193r115,-193r93,-205r134,-183r203,-400r115,-195r185,-59r-128,199r-118,207r-122,205r-131,198r-352,610xm1060,-267r-6,-48r-80,14r-33,-385r61,-35r-107,-4r-142,161r-165,313r139,1r172,-3r-30,209r-61,-19r-2,47r232,0r-5,-53r-54,19r-6,-169r1,-48r86,0xm750,-307r-62,17r84,-207r123,-154r-3,72r2,288xm49,-1383r192,-50r-7,453r11,236r62,-19r12,46r-272,5r3,-45r70,19r25,-520r-22,-102r-74,51r0,-74","w":1121},"\u00bd":{"d":"54,-12r128,-193r115,-192r93,-205r134,-184r202,-400r115,-194r185,-60r-128,200r-118,206r-122,205r-131,199r-352,610xm34,-1383r192,-50r-7,453r11,236r62,-19r11,46r-271,5r2,-45r71,19r25,-520r-23,-102r-73,51r0,-74xm801,-664r-50,5r38,132r7,4r97,-106r146,55r-13,162r-181,178r-126,137r7,50r222,-3r169,-23r-13,64r44,1r-2,-132r-23,2r-174,52r-139,-17r63,-95r202,-135r73,-135r0,-151r-102,-53r-145,-9r-97,92","w":1206},"\u00be":{"d":"166,-19r128,-193r115,-193r93,-205r134,-183r203,-400r115,-195r185,-59r-128,199r-118,207r-122,205r-131,198r-352,610xm501,-1320r-112,-53r-208,-4r-122,135r42,58r0,-70r71,-69r208,50r-14,167r-46,46v-50,1,-91,12,-134,20r39,11r80,8r37,28r14,167r-208,50r-71,-69r0,-70r-43,58r122,135r209,-4r112,-53r0,-156r-95,-102r119,-127r0,-156xm1150,-267r-6,-48r-80,14r-33,-385r61,-35r-107,-4r-142,161r-165,313r139,1r172,-3r-30,209r-61,-19r-2,47r232,0r-5,-53r-54,19r-6,-169r1,-48r86,0xm840,-307r-62,17r84,-207r123,-154r-3,72r1,288","w":1211},"\u00bf":{"d":"661,64r0,150r-114,152r-339,-110r23,-363r270,-341r-72,-123r-51,163r-235,125r-132,302r0,339r183,118r338,8r199,-294xm402,-768r30,12r-15,157r-92,-42xm445,-813r-10,-23r106,-90r47,79xm443,-771r17,-27r133,57r-71,89xm426,-840r-29,12r-92,-93r96,-50xm380,-802r12,29r-112,87r-34,-98","w":682},"\u00c0":{"d":"945,-79r-36,-247r-66,-242r-56,-251r-56,-221r-116,-481r-210,-1r-49,250r-37,245r-55,240r-27,247r-115,474r-68,3r8,60r175,3r173,11r4,-65r-69,-16r23,-193r33,-196r36,-185r303,-24r51,203r24,198r40,189r-36,16r-8,55r209,6r-3,-82xm444,-731r42,-226r33,-225r42,-226r43,231r72,219r45,229xm523,-1612r-151,-132r113,-67r38,76r57,95"},"\u00c1":{"d":"945,-79r-36,-247r-53,-255r-63,-232r-44,-244r-76,-222r-58,-242r-210,-1r-49,250r-37,245r-55,240r-27,247r-115,474r-68,3r8,60r175,3r173,11r4,-65r-69,-16r23,-193r33,-196r36,-185r303,-24r51,203r24,198r40,189r-36,16r-8,55r209,6r-3,-82xm444,-731r42,-226r33,-225r42,-226r43,231r72,219r45,229xm486,-1615r152,-133r-114,-66r-38,76r-57,95"},"\u00c2":{"d":"945,-79r-37,-247r-65,-248r-228,-947r-210,-1r-49,250r-37,245r-55,240r-27,247r-115,474r-68,3r8,60r175,3r173,11r4,-65r-69,-16r23,-193r33,-196r36,-185r303,-24r51,203r24,198r40,189r-37,16r-7,55r209,6r-3,-82xm444,-731r42,-226r33,-225r42,-226r43,231r72,219r44,229xm319,-1610r88,-86r59,-71r108,7r39,57r118,78r-88,29r-118,-128r-69,57r-49,71"},"\u00c3":{"d":"945,-79r-36,-247r-66,-242r-50,-238r-62,-234r-116,-481r-210,-1r-49,250r-37,245r-55,240r-27,247r-115,474r-68,3r8,60r175,3r173,11r4,-65r-69,-16r23,-193r33,-196r36,-185r303,-24r51,203r24,198r40,189r-36,16r-8,55r209,6r-3,-82xm444,-731r42,-226r33,-225r42,-226r43,231r72,219r45,229xm287,-1564r66,-231r85,-14r151,150r95,-27r58,-134r8,107r-57,136r-104,13r-123,-81r-66,-55"},"\u00c4":{"d":"945,-79r-36,-247r-56,-243r-44,-239r-78,-232r-116,-481r-210,-1r-49,250r-37,245r-55,240r-27,247r-115,474r-68,3r8,60r175,3r173,11r4,-65r-69,-16r23,-193r33,-196r36,-185r303,-24r51,203r24,198r40,189r-36,16r-8,55r209,6r-3,-82xm444,-731r42,-226r33,-225r42,-226r43,231r72,219r45,229xm347,-1727r-24,-9r11,-121r77,32xm311,-1693r8,18r-87,69r-39,-60xm313,-1724r-14,20r-110,-44r59,-68xm328,-1672r24,-9r76,72r-80,38xm365,-1701r-9,-22r92,-67r28,76xm694,-1676r-25,-9r12,-121r77,32xm658,-1642r8,18r-87,69r-39,-60xm660,-1674r-14,21r-110,-44r59,-68xm674,-1621r25,-9r75,72r-79,38xm712,-1650r-10,-23r93,-66r28,75"},"\u00c5":{"d":"945,-79r-36,-247r-66,-255r-56,-238r-56,-221r-116,-481r-210,-1r-49,250r-37,245r-55,240r-27,247r-115,474r-68,3r8,60r175,3r173,11r4,-65r-69,-16r23,-193r33,-196r36,-185r303,-24r51,203r24,198r40,189r-36,16r-8,55r209,6r-3,-82xm444,-731r42,-226r33,-225r42,-226r43,231r72,219r45,229xm339,-1731r103,-120r155,18r82,139r-93,110r-165,19xm445,-1620r120,-13r68,-81r-60,-101r-113,-13r-75,87"},"\u00c6":{"d":"929,-77v-5,2,-12,3,-12,10r-67,-1r-9,79r255,-16r253,3r246,-5r21,-225r-16,-226r-37,0r-100,253r-141,143r-209,9r6,-7r5,-217r-9,-217r-4,-217r176,8r176,11r-8,-89r-344,0r18,-214r-15,-207r18,-205r195,3r156,132r70,269r51,-5r0,-231r3,-235r-259,2r-281,9r-224,-8r0,2r-113,0r-87,239r-35,214r-132,250r-65,236r-188,453r-68,3r-1,57r175,4r170,10r15,-63r-67,-15r52,-184r64,-187r64,-178r299,-22r12,143r-11,222xm648,-712r76,-217r68,-268r77,-163r18,144r28,286r7,177v-2,14,-2,28,0,42","w":1683},"\u00c7":{"d":"384,217r30,103r179,11r16,-123r-64,-69r-85,-25r-10,-118r-168,-53r-95,-185r-69,-193r-37,-203r-1,-207r24,-207r70,-231r169,-171r239,-23r189,84r24,-93r106,13r-101,276r-44,-11r16,-80r-101,-98r-229,21r-120,217r-69,197r-1,213r30,210r58,204r90,169r171,58r157,-53r179,-275r-14,80r-74,179r-136,139r-166,30r-5,70r116,42r39,149r-85,143r-168,15r-98,-88","w":954},"\u00c8":{"d":"688,-186r-141,143r-209,9r6,-7r5,-216r-8,-218r-5,-217r177,8r175,11r-8,-89r-343,0r17,-213r-14,-208r17,-205r195,3r156,132r71,269r51,-4r0,-231r3,-236r-764,3r8,70r91,-2r-4,225r2,223r-21,224r18,222r-10,222r2,220r-80,0r-8,78r254,-16r254,4r245,-6r21,-225r-15,-226r-37,0xm479,-1544r-151,-133r113,-66v29,60,61,115,95,170","w":909},"\u00c9":{"d":"691,-174r-141,144r-209,9r6,-7r5,-217r-9,-217r-4,-218r177,9r175,11r-8,-89r-343,-1r17,-213r-14,-208r17,-205r195,3r156,133r71,268r51,-4r-1,-231r4,-235r-764,3r8,69r91,-2r-4,226r2,223r-21,223r18,223r-11,221r3,221r-80,-1r-8,78r254,-15r254,3r245,-6r21,-225r-15,-226r-37,1xm492,-1543r151,-132r-113,-67r-38,76r-57,95","w":910},"\u00ca":{"d":"699,-182r-141,143r-209,9r7,-7r4,-217r-8,-217r-5,-217r177,8r175,11r-8,-89r-343,-1r18,-213r-15,-207r17,-206r195,3r156,133r71,269r51,-5r0,-231r3,-235r-764,3r8,69r92,-2r-5,226r2,223r-20,223r17,223r-10,222r2,220r-80,-1r-8,78r255,-15r501,6r18,-234r-15,-225r-37,0xm304,-1578r89,-85r58,-71r108,7r39,57r118,78r-88,29r-118,-129r-68,57r-49,72","w":918},"\u00cb":{"d":"694,-205r-141,143r-209,10r6,-7r5,-217r-9,-217r-4,-218r177,9r175,11r-8,-90r-344,0r18,-213r-15,-208r18,-205r195,3r156,133r71,268r51,-4r-1,-231r4,-235r-765,2r8,70r92,-2r-4,226r2,223r-21,223r18,223r-11,221r2,221r-79,-1r-9,78r255,-16r254,4r245,-6r21,-225r-15,-226r-38,0xm346,-1709r-25,-5r-5,-121r80,21xm316,-1669r10,16r-77,80r-46,-54xm314,-1701r-12,22r-115,-28r49,-76xm335,-1651r22,-13r86,61r-74,49xm368,-1685r-13,-21r83,-79r38,71xm697,-1707r-25,-5r-6,-121r81,21xm666,-1668r11,17r-77,80r-47,-54xm664,-1699r-11,22r-116,-28r50,-76xm685,-1649r23,-13r85,61r-73,49xm718,-1683r-12,-21r82,-79r39,71","w":914},"\u00cc":{"d":"366,-1384r106,13r-4,-99r-340,-1r-7,98r67,-6r-2,222r8,223r-12,669r6,219r-83,-6r-1,88r193,2r187,-7r7,-95r-127,16r4,-225r7,-221r-5,-223r15,-221r-7,-223xm315,-1539r-152,-132r114,-67r38,76r57,95","w":539},"\u00cd":{"d":"358,-1391r106,14r-5,-99r-340,-1r-6,98r67,-6r-2,222r7,222r-11,670r6,218r-83,-5r-2,87r193,3r188,-8r6,-94r-126,16r4,-225r7,-222r-5,-222r15,-221r-7,-223xm272,-1594r151,-132r-114,-67r-37,76r-57,95","w":530},"\u00ce":{"d":"349,-1438r106,13r-4,-98r-340,-1r-7,98r67,-6r-2,221r8,223r-12,669r6,219r-83,-5r-1,87r193,3r187,-8r6,-94r-126,16r4,-225r7,-222r-5,-222r15,-222r-7,-222xm98,-1644r88,-85r59,-72r107,7r40,57r117,79r-88,28r-118,-128r-68,57r-49,71","w":517},"\u00cf":{"d":"386,-1389r106,13r-5,-99r-340,-1r-6,98r67,-6r-2,222r7,223r-11,669r6,219r-83,-6r-2,88r193,2r188,-7r6,-95r-126,17r4,-225r7,-222r-5,-223r15,-221r-7,-223xm152,-1715r-25,-6r-5,-121r80,21xm122,-1676r10,16r-77,81r-47,-54xm120,-1708r-12,23r-115,-29r49,-75xm141,-1657r22,-13r85,60r-73,49xm174,-1692r-13,-21r82,-79r39,72xm503,-1713r-26,-6r-5,-121r80,21xm472,-1674r11,16r-77,81r-47,-54xm470,-1706r-12,22r-115,-28r49,-75xm491,-1655r23,-13r85,60r-73,49xm524,-1690r-12,-21r82,-79r39,72","w":590},"\u00d0":{"d":"94,-1399r206,-5r198,38r181,90r146,135r89,184r7,203r22,227r-38,224r-77,211r-161,152r-195,39r-197,16r-192,-7r-5,-102r108,33r-7,-223r16,-225r-5,-225r10,-225r-1,-225r-18,-216r-81,1xm361,41r39,11r201,-65r111,-180r23,-209r19,-256r-19,-257r-65,-249r-138,-114r-156,-48r2,224r-13,229r-2,229r-5,229r10,230xm43,-720r152,13r252,0r165,-13r-38,177r-164,-38r-228,25r-151,13","w":985},"\u00d1":{"d":"1014,-1438r-2,-86r-153,20r-12,-6r-1,-13r-75,22r-18,93r96,-14r2,234r25,469r-4,232r8,241r-102,-215r-62,-218r-105,-202r-71,-215r-97,-202r-85,-209r-196,-12r-93,17r80,158r6,246r21,498r-26,248r21,249r-115,-6r10,90r191,-6r195,8r-14,-107r-67,6r-19,-210r21,-215r3,-213r-20,-214r12,-218r363,766r71,197r85,187r78,26r6,-236r-17,-238r-1,-237r4,-237r0,-235r-14,-236xm297,-1565r66,-231r85,-14r151,150r94,-27r59,-134r7,107r-56,136r-104,13r-123,-81r-66,-55","w":1044},"\u00d2":{"d":"441,-1560r260,107r128,332r33,377r-46,331r-122,286r-119,132r-197,-22r-159,-108r-131,-326r-29,-371r49,-331r108,-301xm240,-816r10,287r50,277r160,173r148,-134r71,-537r-7,-298r-64,-283r-163,-139r-178,260xm460,-1631r-152,-133r114,-66r38,76r57,94","w":904},"\u00d3":{"d":"436,-1544r260,107r128,333r33,377r-46,330r-121,287r-120,132r-197,-23r-159,-108r-130,-325r-30,-371r49,-331r109,-302xm244,-816r9,287r50,277r160,173r148,-134r72,-537r-7,-298r-64,-283r-164,-139r-178,260xm421,-1615r151,-133r-113,-66v-29,60,-61,115,-95,170","w":914},"\u00d4":{"d":"441,-1560r260,107r128,332r33,377r-46,331r-122,286r-119,132r-197,-22r-159,-108r-131,-326r-29,-371r49,-331r108,-301xm240,-816r10,287r50,277r160,173r148,-134r71,-537r-7,-298r-64,-283r-163,-139r-178,260xm249,-1643r89,-85r59,-71r107,7r40,57r117,78r-88,29r-118,-129r-68,57r-49,72","w":904},"\u00d5":{"d":"441,-1560r260,107r128,332r33,377r-46,331r-122,286r-119,132r-197,-22r-159,-108r-131,-326r-29,-371r49,-331r108,-301xm240,-816r10,287r50,277r160,173r148,-134r71,-537r-7,-298r-64,-283r-163,-139r-178,260xm202,-1572r66,-231r85,-14r151,150r95,-28r58,-133r8,106r-57,136r-104,14r-123,-82r-66,-54","w":904},"\u00d6":{"d":"441,-1560r260,107r128,332r33,377r-46,331r-122,286r-119,132r-197,-22r-159,-108r-131,-326r-29,-371r49,-331r108,-301xm240,-816r10,287r50,277r160,173r148,-134r71,-537r-7,-298r-64,-283r-163,-139r-178,260xm270,-1719r-25,-5r-5,-121r80,21xm240,-1679r10,16r-77,80r-47,-54xm237,-1711r-11,22r-115,-28r49,-76xm259,-1661r22,-13r85,61r-73,49xm292,-1695r-13,-21r82,-79r39,71xm621,-1717r-26,-5r-5,-122r80,22xm590,-1678r11,17r-77,80r-47,-54xm588,-1709r-12,22r-115,-28r49,-76xm609,-1659r23,-13r85,61r-73,49xm642,-1693r-12,-21r82,-79r38,71","w":904},"\u00d7":{"d":"8,-985r171,-172r279,354r197,-305r164,120r-295,229r344,264r-146,171r-261,-340r-278,329r-137,-138r302,-252","w":901},"\u00d8":{"d":"748,-1144r14,-34r124,-266r-114,-9r-75,176r-36,-92r-260,-108r-224,107r-109,301r-49,331r30,371r82,206r-128,265r133,-19r57,-117r145,99r197,22r120,-132r121,-286r46,-331r-33,-377xm210,-445r-10,-287r27,-394r178,-260r163,139r41,177r-55,130r-124,237r-135,203r-69,142xm568,-129r-148,134r-160,-175r47,-96r159,-262r126,-251r42,-100r5,213","w":862},"\u00d9":{"d":"836,-83r-362,104r-263,-153r-83,-272r-24,-447r2,-560r-116,27r0,-116r212,46r237,-42r-8,112r-107,-6r-48,534r65,417r157,318r209,-24r114,-155r1,-397r-36,-571r-143,19r0,-135r236,51r253,-51r-13,113r-107,-10r-55,395r-36,648xm576,-1561r-152,-133r114,-66v29,59,61,115,94,170","w":1077},"\u00da":{"d":"836,-83r-362,104r-263,-153r-83,-272r-24,-447r2,-560r-116,27r0,-116r212,46r237,-42r-8,112r-107,-6r-48,534r65,417r157,318r209,-24r114,-155r1,-397r-36,-571r-143,19r0,-135r236,51r253,-51r-13,113r-107,-10r-55,395r-36,648xm532,-1602r151,-133r-114,-66r-37,75r-57,95","w":1077},"\u00db":{"d":"836,-83r-362,104r-263,-153r-83,-272r-24,-447r2,-560r-116,27r0,-116r212,46r237,-42r-8,112r-107,-6r-48,534r65,417r157,318r209,-24r114,-155r1,-397r-36,-571r-143,19r0,-135r236,51r253,-51r-13,113r-107,-10r-55,395r-36,648xm397,-1598r88,-85r59,-72r108,8r39,57r118,78r-88,28r-118,-128r-69,57r-49,71","w":1077},"\u00dc":{"d":"836,-83r-362,104r-263,-153r-83,-272r-24,-447r2,-560r-116,27r0,-116r212,46r237,-42r-8,112r-107,-6r-48,534r65,417r157,318r209,-24r114,-155r1,-397r-36,-571r-143,19r0,-135r236,51r253,-51r-13,113r-107,-10r-55,395r-36,648xm360,-1702r-26,-5r-5,-122r80,22xm329,-1663r11,17r-77,80r-47,-54xm327,-1695r-12,23r-115,-29r49,-75xm348,-1644r23,-13r85,61r-73,48xm381,-1678r-12,-22r82,-78r39,71xm710,-1700r-25,-5r-5,-122r80,21xm680,-1661r10,16r-77,81r-46,-54xm678,-1693r-12,23r-115,-29r49,-75xm699,-1642r22,-13r86,60r-74,49xm732,-1676r-13,-22r83,-78r38,71","w":1077},"\u00dd":{"d":"615,-696r158,-403r157,-353r60,-12r6,-50r-200,-28r-13,56r40,2r-62,164r-103,208r-117,269r-102,-260r-108,-221r-52,-119r60,5r-6,-89r-322,19r0,63r80,5r84,159r265,584r21,248r-15,225r0,209r-56,6r-11,68r310,-3r0,-57r-78,-8r0,-139r4,-240r16,-169xm464,-1580r151,-133r-114,-66r-37,76r-57,94","w":930},"\u00de":{"d":"887,-994r-156,-78r-429,-14r-2,-215r114,0r0,-114r-177,13r-243,-22r-6,88r114,-11r4,142r30,769r0,373r-102,-34r-12,122r395,12r-9,-105r-112,17r-1,-254r285,-20r271,-82r147,-250xm578,-469r-282,9r11,-114r-4,-397r368,-6r157,105r16,225","w":991},"\u00df":{"d":"946,-247r-12,-216r-130,-202r-90,-94r52,-162r66,-152r-38,-257r-133,-74r-306,-55r-334,30r15,73r98,-46r14,223r6,231r-12,232r-4,232r11,199r-10,267r-114,-65r9,125r288,10r1,-91r-2,0r5,-188r-2,-202r11,-201r-25,-312r2,-223r-16,-230r318,46r57,86r57,161r-76,190r-104,152r142,133r104,199r-45,263r-40,108r-123,38r-209,-67r247,180r142,-66r133,-85","w":985},"\u00e0":{"d":"182,-733r-28,9r-75,-221r88,-35r7,85r265,-141r190,114r85,94r46,482r-29,304r85,-32r-20,103r-66,10r-145,4r16,-179r-243,163r-253,-83r-69,-188r72,-243r151,-142r218,-56r147,28r-68,-226r-123,-85r-189,85r-72,54xm632,-474r-8,-126r-166,-38r-187,92r-89,249r51,139r240,-44r142,-165xm433,-1110r-152,-133r114,-66r38,76r57,95","w":861},"\u00e1":{"d":"182,-733r-28,9r-75,-221r88,-35r7,85r265,-141r190,114r85,94r46,482r-29,304r85,-32r-20,103r-66,10r-145,4r16,-179r-243,163r-253,-83r-69,-188r72,-243r151,-142r218,-56r147,28r-68,-226r-123,-85r-189,85r-72,54xm632,-474r-8,-126r-166,-38r-187,92r-89,249r51,139r240,-44r142,-165xm395,-1104r151,-132r-113,-66v-29,60,-61,115,-95,170","w":861},"\u00e2":{"d":"182,-733r-28,9r-75,-221r88,-35r7,85r265,-141r190,114r85,94r46,482r-29,304r85,-32r-20,103r-66,10r-145,4r16,-179r-243,163r-253,-83r-69,-188r72,-243r151,-142r218,-56r147,28r-68,-226r-123,-85r-189,85r-72,54xm632,-474r-8,-126r-166,-38r-187,92r-89,249r51,139r240,-44r142,-165xm223,-1117r88,-86r59,-71r108,7r39,57r117,79r-88,28r-117,-128r-69,57r-49,71","w":861},"\u00e3":{"d":"182,-733r-28,9r-75,-221r88,-35r7,85r265,-141r190,114r85,94r46,482r-29,304r85,-32r-20,103r-66,10r-145,4r16,-179r-243,163r-253,-83r-69,-188r72,-243r151,-142r218,-56r147,28r-68,-226r-123,-85r-189,85r-72,54xm632,-474r-8,-126r-166,-38r-187,92r-89,249r51,139r240,-44r142,-165xm188,-1078r66,-231r85,-14r151,150r95,-27r58,-134r8,106r-57,136r-104,14r-122,-82r-67,-54","w":859},"\u00e4":{"d":"182,-733r-28,9r-75,-221r88,-35r7,85r265,-141r190,114r85,94r46,482r-29,304r85,-32r-20,103r-66,10r-145,4r16,-179r-243,163r-253,-83r-69,-188r72,-243r151,-142r218,-56r147,28r-68,-226r-123,-85r-189,85r-72,54xm632,-474r-8,-126r-166,-38r-187,92r-89,249r51,139r240,-44r142,-165xm237,-1235r-26,-6r-5,-121r80,21xm206,-1196r11,16r-77,81r-47,-54xm204,-1228r-12,23r-115,-29r49,-75xm225,-1177r23,-13r85,60r-73,49xm258,-1212r-12,-21r82,-79r38,72xm587,-1233r-25,-6r-5,-121r80,21xm557,-1194r10,16r-77,81r-47,-54xm555,-1226r-12,23r-115,-29r49,-75xm576,-1175r22,-13r85,60r-73,49xm609,-1210r-13,-21r82,-79r39,72","w":861},"\u00e5":{"d":"182,-733r-28,9r-75,-221r88,-35r7,85r265,-141r190,114r85,94r46,482r-29,304r85,-32r-20,103r-66,10r-145,4r16,-179r-243,163r-253,-83r-69,-188r72,-243r151,-142r218,-56r147,28r-68,-226r-123,-85r-189,85r-72,54xm632,-474r-8,-126r-166,-38r-187,92r-89,249r51,139r240,-44r142,-165xm249,-1264r103,-120r155,19r82,138r-92,111r-165,18xm356,-1153r120,-13r67,-81r-60,-100r-112,-14r-75,87","w":861},"\u00e6":{"d":"1410,-456r-85,230r-174,107r-250,-149r-49,-176r-21,-172r282,-42r286,-30r-92,-291r-171,-89r-179,-39r-211,147r-15,38r-67,-75r-190,-114r-265,141r-8,-85r-88,36r75,221r28,-10r-10,-95r72,-55r190,-85r123,86r65,216r-3,9r-141,-28r-218,57r-152,143r-72,243r69,188r254,84r279,-145r58,-108r122,175r316,75r221,-198r46,-204xm529,-257r-262,26r-51,-139r90,-249r187,-93r158,36r15,140r-16,95xm847,-831r82,-137r233,52r68,198r-213,-6r-190,49","w":1402},"\u00e7":{"d":"339,205r30,103r178,11r16,-123r-64,-69r-85,-25r-9,-110r-98,-16r-187,-201r-54,-209r13,-252r78,-178r138,-132r182,-23r181,59r2,-63r72,-6r-13,257r-39,0r-11,-91r-79,-52r-133,-39r-137,100r-66,162r-30,211r44,201r228,186r156,-52r100,-213r34,10r-88,249r-198,108r-3,53r116,42r39,149r-86,143r-167,15r-98,-88","w":801},"\u00e8":{"d":"257,-217r249,149r174,-107r84,-230r25,6r-46,204r-221,198r-314,-76r-123,-176r-60,-206r-22,-211r99,-241r210,-147r178,39r172,89r91,290r-285,30r-281,42r20,171xm183,-623r189,-49r212,6r-67,-198r-233,-52r-81,137xm386,-1110r-151,-133r113,-66r38,76r57,95","w":760},"\u00e9":{"d":"257,-217r249,149r174,-107r84,-230r25,6r-46,204r-221,198r-314,-76r-123,-176r-60,-206r-22,-211r99,-241r210,-147r178,39r172,89r91,290r-285,30r-281,42r20,171xm183,-623r189,-49r212,6r-67,-198r-233,-52r-81,137xm348,-1104r152,-132r-114,-66v-29,60,-61,115,-95,170","w":760},"\u00ea":{"d":"257,-217r249,149r174,-107r84,-230r25,6r-46,204r-221,198r-314,-76r-123,-176r-60,-206r-22,-211r99,-241r210,-147r178,39r172,89r91,290r-285,30r-281,42r20,171xm183,-623r189,-49r212,6r-67,-198r-233,-52r-81,137xm176,-1117r88,-86r59,-71r108,7r39,57r118,79r-88,28r-118,-128r-69,57r-49,71","w":760},"\u00eb":{"d":"257,-217r249,149r174,-107r84,-230r25,6r-46,204r-221,198r-314,-76r-123,-176r-60,-206r-22,-211r99,-241r210,-147r178,39r172,89r91,290r-285,30r-281,42r20,171xm183,-623r189,-49r212,6r-67,-198r-233,-52r-81,137xm183,-1283r-25,-6r-6,-121r81,21xm152,-1244r11,16r-77,81r-47,-55xm150,-1276r-11,22r-116,-28r50,-76xm171,-1226r23,-12r85,60r-73,49xm204,-1260r-12,-21r82,-79r39,71xm534,-1281r-26,-6r-5,-121r80,21xm503,-1242r11,16r-77,81r-47,-55xm501,-1274r-12,22r-115,-28r49,-76xm522,-1224r23,-12r85,60r-74,49xm555,-1258r-12,-21r82,-79r38,71","w":761},"\u00ec":{"d":"56,-1034r281,-16r-34,367r10,614r93,-38r2,101r-348,4r2,-92r90,38r21,-475r-30,-445r-87,34r0,-92xm237,-1110r-152,-132r114,-67v28,60,61,116,94,171","w":434},"\u00ed":{"d":"56,-1034r281,-16r-34,367r10,614r93,-38r2,101r-348,4r2,-92r90,38r21,-475r-30,-445r-87,34r0,-92xm212,-1091r151,-133r-113,-66r-38,76r-57,94","w":434},"\u00ee":{"d":"87,-1034r281,-16r-34,367r10,614r93,-38r2,101r-348,4r2,-92r90,38r21,-475r-30,-445r-87,34r0,-92xm25,-1134r88,-85r59,-72r107,8r40,57r117,78r-88,28r-118,-128r-68,57r-49,71","w":465},"\u00ef":{"d":"116,-1034r281,-16r-34,367r10,614r93,-38r2,101r-348,4r2,-92r91,38r20,-475r-30,-445r-87,34r0,-92xm87,-1254r-26,-5r-5,-122r80,22xm56,-1215r11,17r-77,80r-47,-54xm54,-1247r-12,23r-115,-29r49,-75xm75,-1196r23,-13r85,61r-73,48xm108,-1230r-12,-22r82,-78r38,71xm437,-1252r-25,-5r-5,-122r80,22xm407,-1213r10,16r-77,81r-47,-54xm405,-1245r-12,23r-115,-29r49,-75xm426,-1194r22,-13r86,60r-74,49xm459,-1228r-13,-22r83,-78r38,71","w":529},"\u00f0":{"d":"852,-470r-10,280r-169,228r-279,78r-258,-149r-96,-314r18,-217r48,-215r139,-172r203,-55r193,84r77,83r-88,-298r-194,-207r-212,130r-10,59r-30,1r-53,-247r71,-6r7,126r187,-141r264,123r95,172r67,214r46,196xm717,-764r-112,-116r-212,-17r-123,176r-67,207r22,218r93,275r195,37r178,-155r38,-303xm514,-1213r265,-177r88,101r-214,101r-430,215r-12,-114","w":908},"\u00f1":{"d":"48,-1011r272,-26r16,132r221,-132r210,113r65,201r20,329r-2,412r93,-19r0,85r-167,-43r-191,40r6,-82r85,4r39,-394r-52,-306r-125,-235r-199,95r-13,329r28,421r114,-14r0,100r-389,0r10,-84r85,8r44,-292r-41,-399r0,-174r-141,11xm244,-1129r66,-231r85,-13r151,149r94,-27r59,-133r8,106r-57,136r-104,13r-123,-81r-66,-55","w":984},"\u00f2":{"d":"391,-1033r240,92r105,235r15,259r-59,222r-127,186r-125,52r-177,0r-145,-85r-108,-231r-11,-255r61,-221r116,-198xm169,-541r-3,196r34,192r143,130r188,-183r48,-258r7,-204r-48,-196r-143,-125r-183,182xm393,-1110r-151,-133r114,-66r37,76r57,95","w":726},"\u00f3":{"d":"392,-1033r240,92r105,235r15,259r-59,222r-127,186r-125,52r-177,0r-144,-85r-109,-231r-11,-255r61,-221r116,-198xm170,-541r-3,196r34,192r143,130r188,-183r48,-258r7,-204r-48,-196r-142,-125r-184,182xm356,-1104r152,-132r-114,-66v-29,60,-61,115,-95,170","w":727},"\u00f4":{"d":"392,-1033r240,92r105,235r15,259r-59,222r-127,186r-125,52r-177,0r-144,-85r-109,-231r-11,-255r61,-221r116,-198xm170,-541r-3,196r34,192r143,130r188,-183r48,-258r7,-204r-48,-196r-142,-125r-184,182xm184,-1117r89,-86r58,-71r108,7r39,57r118,79r-88,28r-118,-128r-68,57r-49,71","w":727},"\u00f5":{"d":"391,-1033r240,92r105,235r15,259r-59,222r-127,186r-125,52r-177,0r-145,-85r-108,-231r-11,-255r61,-221r116,-198xm169,-541r-3,196r34,192r143,130r188,-183r48,-258r7,-204r-48,-196r-143,-125r-183,182xm155,-1090r66,-231r85,-14r151,150r94,-27r59,-134r7,107r-56,136r-104,13r-123,-81r-66,-55","w":726},"\u00f6":{"d":"431,-1033r240,92r105,235r14,259r-58,222r-127,186r-125,52r-177,0r-145,-85r-108,-231r-11,-255r61,-221r115,-198xm209,-541r-4,196r35,192r143,130r188,-183r48,-258r6,-204r-47,-196r-143,-125r-183,182xm274,-1240r-25,-6r-5,-121r80,21xm244,-1201r10,16r-77,81r-46,-55xm242,-1233r-12,22r-115,-28r49,-75xm263,-1183r22,-12r86,60r-74,49xm296,-1217r-13,-21r83,-79r38,71xm625,-1238r-25,-6r-6,-121r81,21xm594,-1199r11,16r-77,81r-47,-55xm592,-1231r-11,22r-116,-28r50,-76xm613,-1181r23,-12r85,60r-73,49xm646,-1215r-12,-21r82,-79r39,71","w":829},"\u00f7":{"d":"116,-737r327,26r354,-57r7,143r-680,11xm334,-1043r229,-10r-10,198r-115,0r-83,15xm354,-481r229,-11r-10,198r-115,0r-83,15","w":768},"\u00f8":{"d":"726,-836r7,-9r95,-181r-85,-28r-70,97r-16,-35r-240,-91r-215,56r-116,197r-61,222r11,254r87,184r-92,141r104,10r54,-78r100,59r177,0r125,-52r127,-186r59,-221r-15,-259xm192,-395r3,-196r43,-266r184,-183r142,125r20,82r-107,149r-162,218r-106,164xm557,-256r-188,182r-121,-109r143,-207r152,-190r67,-93r-5,158","w":845},"\u00f9":{"d":"968,-25r-307,27r-17,-131r-220,131r-209,-113r-65,-200r-20,-327r2,-411r-92,19r0,-85r168,35r188,-32r-6,82r-85,-4r-38,392r51,306r125,233r199,-94r13,-328r-29,-420r-113,15r0,-100r187,38r201,-38r-10,83r-85,-7r-44,290r41,397r0,174r165,5r0,63xm513,-1139r-151,-132r114,-67r37,76r57,95","w":1016},"\u00fa":{"d":"968,-25r-307,27r-17,-131r-220,131r-209,-113r-65,-200r-20,-327r2,-411r-92,19r0,-85r168,35r188,-32r-6,82r-85,-4r-38,392r51,306r125,233r199,-94r13,-328r-29,-420r-113,15r0,-100r187,38r201,-38r-10,83r-85,-7r-44,290r41,397r0,174r165,5r0,63xm477,-1148r151,-133r-113,-66r-38,76r-57,94","w":1016},"\u00fb":{"d":"968,-25r-307,27r-17,-131r-220,131r-209,-113r-65,-200r-20,-327r2,-411r-92,19r0,-85r168,35r188,-32r-6,82r-85,-4r-38,392r51,306r125,233r199,-94r13,-328r-29,-420r-113,15r0,-100r187,38r201,-38r-10,83r-85,-7r-44,290r41,397r0,174r165,5r0,63xm315,-1181r89,-86r58,-71r108,7r39,57r118,79r-88,28r-118,-128r-68,57r-49,71","w":1016},"\u00fc":{"d":"968,-25r-307,27r-17,-131r-220,131r-209,-113r-65,-200r-20,-327r2,-411r-92,19r0,-85r168,35r188,-32r-6,82r-85,-4r-38,392r51,306r125,233r199,-94r13,-328r-29,-420r-113,15r0,-100r187,38r201,-38r-10,83r-85,-7r-44,290r41,397r0,174r165,5r0,63xm323,-1342r-25,-6r-6,-121r81,21xm292,-1303r11,16r-77,81r-47,-55xm290,-1335r-11,22r-116,-28r50,-76xm311,-1285r23,-12r85,60r-73,49xm344,-1319r-12,-21r82,-79r39,71xm674,-1340r-26,-6r-5,-121r80,21xm643,-1301r11,16r-78,81r-46,-55xm641,-1333r-12,22r-115,-28r49,-76xm662,-1283r22,-13r86,61r-74,49xm695,-1317r-13,-21r83,-79r38,71","w":1016},"\u00fd":{"d":"304,348r15,-31r339,46r123,-215r-15,-243r-77,95r-354,30r-185,-230r-30,-478r16,-164r-20,-94r-78,28r-6,-75r185,27r171,-19r-3,80r-75,-11r-19,98r6,130r69,580r307,17r105,-129r13,-526r-30,-258r-114,28r-6,-101r169,46r154,-62r20,87r-72,-15r23,441r-20,385r3,353r-60,133r-169,139xm335,471r-108,-47r77,-215r46,0xm481,-1124r152,-133r-114,-66r-38,76r-57,94","w":999},"\u00fe":{"d":"-18,-1405r271,-9r-21,224r3,276r166,-53r255,87r112,160r13,198r6,183r-54,170r-118,148r-186,43r-188,3r-12,316r113,-38r0,114r-360,0r0,-101r95,38r0,-215r13,-202r-10,-219r21,-523r-28,-363r16,-183r-99,14xm265,-28r109,-19r246,-145r-12,-286r9,-255r-193,-166r-181,48r1,272r-23,197","w":781},"\u00ff":{"d":"304,348r15,-31r339,46r123,-215r-15,-243r-77,95r-354,30r-185,-230r-30,-478r16,-164r-20,-94r-78,28r-6,-75r185,27r171,-19r-3,80r-75,-11r-19,98r6,130r69,580r307,17r105,-129r13,-526r-30,-258r-114,28r-6,-101r169,46r154,-62r20,87r-72,-15r23,441r-20,385r3,353r-60,133r-169,139xm335,471r-108,-47r77,-215r46,0xm337,-1265r-25,-5r-5,-121r80,21xm307,-1225r10,16r-77,80r-47,-54xm305,-1257r-12,22r-115,-28r49,-76xm326,-1207r22,-13r85,61r-73,49xm359,-1241r-13,-21r82,-79r39,71xm688,-1263r-26,-5r-5,-122r80,22xm657,-1224r11,17r-77,80r-47,-54xm655,-1255r-11,22r-116,-28r50,-76xm676,-1205r23,-13r85,61r-73,49xm709,-1239r-12,-21r82,-79r39,71","w":999},"\u0152":{"d":"1416,-470r-38,0r-100,261r-131,110r-210,9r7,-7r-5,-186r-9,-223r31,-224r142,7r175,12r-8,-92r-316,-1r-14,-161r4,-59r-14,-214r17,-212r195,3r156,137r71,277r51,-4r-1,-238r4,-243r-513,4r-132,-21r0,104r-238,-90r-224,104r-109,294r-49,323r30,362r131,317r159,106r120,18r189,-86r10,67r377,-21r259,2r-2,-202xm400,-245r-51,-270r-9,-280r26,-384r178,-254r164,136r47,205r1,109r-21,231r17,217r-44,329r-148,130","w":1506},"\u0153":{"d":"1401,-370r-109,220r-185,88r-232,-176r-30,-180v0,-21,-3,-46,2,-63v-6,-32,-4,-73,-5,-110r285,-12r287,2r-59,-300r-162,-107r-173,-58r-225,124r-43,80r-56,-105r-245,-77r-211,70r-103,204r-47,225r27,254r123,223r149,76r177,-11r122,-60r74,-125r48,89r306,109r241,-173r68,-199xm881,-803r96,-128r227,77r45,204r-210,-28r-194,28xm467,-33r-151,-120r-47,-190r-8,-196r26,-268r171,-193r151,115r59,194r2,55r-1,136r4,22r-30,251","w":1397},"\u0178":{"d":"615,-696r158,-403r157,-353r60,-12r6,-50r-208,-20r-13,57r40,1r-54,156r-96,215r-124,262r-102,-260r-108,-221r-52,-119r60,5r-6,-89r-322,19r0,63r80,5r84,159r265,584r21,248r-15,225r0,209r-56,6r-11,68r310,-3r0,-57r-78,-8r0,-139r4,-240r16,-169xm378,-1704r-26,-6r-5,-121r80,21xm347,-1665r11,16r-77,81r-47,-55xm345,-1697r-12,22r-115,-28r49,-76xm366,-1647r23,-12r85,60r-73,49xm399,-1681r-12,-21r82,-79r38,71xm728,-1702r-25,-6r-5,-121r80,21xm698,-1663r10,16r-77,81r-47,-55xm696,-1695r-12,22r-115,-28r49,-76xm717,-1645r22,-13r85,61r-73,49xm750,-1679r-13,-21r82,-79r39,71","w":930},"\u02c6":{"d":"450,-1344r-88,-85r-59,-71r-108,7r-39,57r-118,78r89,29r117,-129r69,57r49,72","w":420},"\u02dc":{"d":"59,-1189r66,-231r85,-14r151,150r94,-28r59,-133r8,106r-57,136r-104,14r-123,-82r-66,-54","w":602},"\u2013":{"d":"79,-737r326,26r464,-39r6,142r-789,-6","w":839},"\u2014":{"d":"58,-737r437,35r467,-48r7,142r-903,-6","w":932},"\u2018":{"d":"252,-1295r-244,11r9,-197r176,-203r45,20r-98,183r89,10","w":321},"\u2019":{"d":"10,-1550r244,1r-19,197r-181,196r-43,-23r101,-179r-89,-15","w":306},"\u201a":{"d":"62,-178r244,-11r-9,197r-212,199r-45,-20r134,-179r-90,-10","w":350},"\u201c":{"d":"293,-1295r-244,11r9,-197r179,-189r45,21r-101,168r89,10xm609,-1323r-244,12r9,-198r179,-189r45,21r-101,168r90,10","w":683},"\u201d":{"d":"358,-1561r244,1r-19,197r-182,194r-43,-23r102,-178r-89,-15xm40,-1550r245,1r-20,197r-181,194r-44,-23r102,-177r-88,-15","w":652},"\u201e":{"d":"56,-178r244,-11r-9,197r-181,210r-45,-21r103,-189r-89,-10xm389,-196r244,-11r-9,198r-181,209r-45,-21r103,-188r-89,-11","w":694},"\u2022":{"d":"365,-726r-54,-21r26,-289r168,77xm286,-643r19,42r-193,165r-85,-144xm291,-719r-32,49r-242,-105r130,-163xm322,-593r53,-23r167,172r-174,92xm405,-663r-21,-54r203,-159r62,181","w":606},"\u2026":{"d":"42,-191r211,-10r-10,182r-105,0r-77,15xm400,-198r212,-9r-10,182r-106,0r-76,14xm764,-200r214,-1r-12,174r-106,0r-77,15","w":1035},"\u2039":{"d":"197,-697r-141,135r133,243r105,199r206,263r12,-225r-253,-432r171,-236r134,-149r3,-235r-253,233","w":596},"\u203a":{"d":"458,-697r140,134r-132,243r-105,199r-207,263r-11,-225r253,-432r-172,-236r-133,-149r-3,-235r252,233","w":567},"\u2122":{"d":"423,-1523r-115,0r1,1r-262,-1r-12,150r18,0r40,-97r68,-34r0,-3r34,2v-5,113,5,218,7,329r-25,0r-4,21r140,-6r2,-15r-36,0r-14,-219r-1,-109r108,36r41,97r28,0xm835,-1494r39,-25r-32,-4r-79,9r-45,95r-12,50v-16,29,-31,60,-43,93v-14,-55,-45,-97,-61,-146r-17,-51r-19,-48r-81,1r-37,-3r38,19v-8,74,12,146,0,217v5,33,8,69,7,109r-43,-2r6,18r63,6r65,3r5,-25r-30,-1v-9,-86,-6,-188,-2,-278r25,55v14,58,39,106,59,158r19,28v19,-23,38,-49,49,-78r20,-55r27,-52r18,-58v1,41,-1,80,-6,115r4,56r-6,55r8,56r-39,-4r6,19v40,5,82,7,127,7r-2,-19r-19,-3r-2,-52v2,-37,0,-73,-4,-106v7,-54,2,-111,-6,-159","w":897}}});
